svm_type c_svc
kernel_type rbf
gamma 8
nr_class 3
total_sv 449
rho -0.329291 0.728351 0.224186
label 0 1 -1
nr_sv 189 213 47
SV
947.2097794599958 0 1:-0.945652 2:-1 3:-1 4:-1 
2048 0 1:-0.884058 2:-1 3:-1 4:-1 
2048 0 1:-0.916667 2:-1 3:-1 4:-1 
2048 0 1:-0.807971 2:-1 3:-1 4:-1 
887.3153070361213 0 1:-0.717391 2:-1 3:-0.968254 4:-1 
2048 0 1:-0.942029 2:-1 3:-1 4:-1 
2048 0 1:-0.898551 2:-1 3:-1 4:-1 
2048 0 1:-0.934783 2:-1 3:-1 4:-1 
489.9841592522018 0 1:-0.815217 2:-1 3:-1 4:-1 
2048 0 1:-0.898551 2:-1 3:-1 4:-1 
2048 0 1:-0.956522 2:-1 3:-1 4:-1 
2048 0 1:-0.949275 2:-1 3:-1 4:-1 
2048 0 1:-0.942029 2:-1 3:-1 4:-1 
2048 0 1:-0.956522 2:-1 3:-1 4:-1 
2048 0 1:-0.884058 2:-1 3:-1 4:-1 
0 1.477168559442193 1:-0.311594 2:-1 3:-1 4:-1 
2048 0 1:-0.967391 2:-1 3:-1 4:-1 
1149.305095163223 0 1:-0.789855 2:-1 3:-1 4:-1 
2048 0 1:-0.916667 2:-1 3:-1 4:-1 
2048 0 1:-0.884058 2:-1 3:-1 4:-1 
2048 0 1:-0.971014 2:-1 3:-1 4:-1 
1323.385914176795 0 1:-1 2:-1 3:-1 4:-1 
2048 0 1:-1 2:-1 3:-1 4:-1 
2048 0 1:-1 2:-1 3:-1 4:-1 
2048 0 1:-1 2:-1 3:-1 4:-1 
2048 0 1:-0.971014 2:-1 3:-1 4:-1 
2048 0 1:-0.742754 2:-1 3:-0.904762 4:-1 
2048 0 1:-1 2:-1 3:-1 4:-1 
2048 0 1:-0.942029 2:-1 3:-1 4:-1 
2048 0 1:-1 2:-1 3:-1 4:-1 
2048 0 1:-0.971014 2:-1 3:-1 4:-1 
2048 0 1:-1 2:-1 3:-1 4:-1 
2048 0 1:-1 2:-1 3:-1 4:-1 
2048 0 1:-0.974638 2:-1 3:-1 4:-1 
2048 0 1:-1 2:-1 3:-1 4:-1 
2048 0 1:-1 2:-1 3:-1 4:-1 
2048 0 1:-1 2:-1 3:-1 4:-1 
2048 0 1:-1 2:-1 3:-1 4:-1 
2048 0 1:-0.956522 2:-1 3:-1 4:-1 
2048 0 1:-0.891304 2:-1 3:-1 4:-1 
2048 0 1:-1 2:-1 3:-1 4:-1 
2048 0 1:-1 2:-1 3:-1 4:-1 
2048 0 1:-1 2:-1 3:-1 4:-1 
2048 0 1:-1 2:-1 3:-1 4:-1 
2048 0 1:-1 2:-1 3:-1 4:-1 
2048 0 1:-0.971014 2:-1 3:-1 4:-1 
960.0662462134861 0 1:-0.992754 2:-1 3:-1 4:-1 
1230.364735844146 0 1:-0.963768 2:-1 3:-1 4:-1 
2048 0 1:-1 2:-1 3:-1 4:-1 
2048 0 1:-1 2:-1 3:-1 4:-1 
2048 0 1:-0.916667 2:-1 3:-1 4:-1 
2048 0 1:-0.949275 2:-1 3:-1 4:-1 
2048 0 1:-1 2:-1 3:-1 4:-1 
2048 0 1:-1 2:-1 3:-1 4:-1 
2048 0 1:-0.942029 2:-1 3:-1 4:-1 
2048 0 1:-0.782609 2:-1 3:-0.968254 4:-1 
2048 0 1:-1 2:-1 3:-1 4:-1 
2048 0 1:-1 2:-1 3:-1 4:-1 
2048 0 1:-1 2:-1 3:-1 4:-1 
2048 0 1:-1 2:-1 3:-1 4:-1 
2048 0 1:-0.942029 2:-1 3:-1 4:-1 
2048 0 1:-1 2:-1 3:-1 4:-1 
1250.169921431455 0 1:-0.793478 2:-1 3:-0.968254 4:-1 
2048 0 1:-0.934783 2:-1 3:-1 4:-1 
2048 0 1:-1 2:-1 3:-1 4:-1 
2048 0 1:-1 2:-1 3:-1 4:-1 
2048 0 1:-1 2:-1 3:-1 4:-1 
2048 0 1:-1 2:-1 3:-1 4:-1 
1602.391015762206 0 1:-0.992754 2:-1 3:-1 4:-1 
2048 0 1:-1 2:-1 3:-1 4:-1 
1913.815698276122 0 1:-0.963768 2:-1 3:-1 4:-1 
2048 0 1:-0.844203 2:-1 3:-0.936508 4:-1 
2048 0 1:-1 2:-1 3:-1 4:-1 
2048 0 1:-1 2:-1 3:-1 4:-1 
2048 0 1:-0.891304 2:-1 3:-1 4:-1 
2048 0 1:-0.833333 2:-1 3:-1 4:-1 
2048 0 1:-1 2:-1 3:-1 4:-1 
2048 0 1:-1 2:-1 3:-1 4:-1 
2048 0 1:-1 2:-1 3:-1 4:-1 
2048 0 1:-1 2:-1 3:-1 4:-1 
2048 0 1:-1 2:-1 3:-1 4:-1 
2048 0 1:-0.949275 2:-1 3:-1 4:-1 
2048 0 1:-1 2:-1 3:-1 4:-1 
2048 0 1:-0.898551 2:-1 3:-1 4:-1 
2048 0 1:-1 2:-1 3:-1 4:-1 
2048 0 1:-1 2:-1 3:-1 4:-1 
2048 0 1:-1 2:-1 3:-1 4:-1 
2048 0 1:-0.949275 2:-1 3:-1 4:-1 
2048 0 1:-1 2:-1 3:-1 4:-1 
2048 0 1:-0.942029 2:-1 3:-1 4:-1 
2023.25268376531 0 1:-1 2:-1 3:-1 4:-1 
2048 0 1:-1 2:-1 3:-1 4:-1 
2048 0 1:-1 2:-1 3:-1 4:-1 
2048 0 1:-0.971014 2:-1 3:-1 4:-1 
2048 0.9758405023364651 1:-0.956522 2:-1 3:-1 4:-0.763806 
2023.750446871261 0 1:-1 2:-1 3:-1 4:-1 
1418.609230184001 0 1:-0.865942 2:-1 3:-1 4:-1 
2048 0 1:-1 2:-1 3:-1 4:-1 
2048 0 1:-1 2:-1 3:-1 4:-1 
2048 0 1:-1 2:-1 3:-1 4:-1 
2048 0 1:-1 2:-1 3:-1 4:-1 
2048 0 1:-1 2:-1 3:-1 4:-1 
2048 0 1:-1 2:-1 3:-1 4:-1 
2047.993665910665 0 1:-1 2:-1 3:-1 4:-1 
2048 0 1:-0.963768 2:-1 3:-1 4:-1 
2048 0 1:-1 2:-1 3:-1 4:-1 
2048 0 1:-1 2:-1 3:-1 4:-1 
2044.491819569885 0 1:-1 2:-1 3:-1 4:-1 
2048 0 1:-1 2:-1 3:-1 4:-1 
2048 0 1:-0.898551 2:-1 3:-1 4:-1 
2048 0 1:-1 2:-1 3:-1 4:-1 
2048 0 1:-1 2:-1 3:-1 4:-1 
2048 0 1:-1 2:-1 3:-1 4:-1 
2048 0 1:-1 2:-1 3:-1 4:-1 
2048 0 1:-1 2:-1 3:-1 4:-1 
1685.647330865636 0 1:-0.963768 2:-1 3:-1 4:-1 
2048 0 1:-1 2:-1 3:-1 4:-1 
2048 0 1:-0.807971 2:-1 3:-1 4:-1 
2048 0 1:-1 2:-1 3:-1 4:-1 
2048 0 1:-0.807971 2:-1 3:-1 4:-1 
2048 0 1:-1 2:-1 3:-1 4:-1 
0.566047048981398 0 1:-0.963768 2:-1 3:-1 4:-1 
2048 0 1:-0.818841 2:-1 3:-1 4:-1 
2048 0 1:-1 2:-1 3:-1 4:-1 
2048 0 1:-1 2:-1 3:-1 4:-1 
2048 0 1:-1 2:-1 3:-1 4:-1 
2048 0 1:-1 2:-1 3:-1 4:-1 
2048 0 1:-1 2:-1 3:-1 4:-1 
2048 0 1:-0.923913 2:-1 3:-1 4:-1 
2048 0 1:-0.967391 2:-1 3:-1 4:-1 
984.5102088032527 0.6053579780725875 1:-0.663043 2:-1 3:-0.904762 4:-1 
2048 0 1:-1 2:-1 3:-1 4:-1 
2048 0 1:-1 2:-1 3:-1 4:-1 
2048 0 1:-1 2:-1 3:-1 4:-1 
2048 0 1:-0.974638 2:-1 3:-1 4:-1 
2048 0 1:-1 2:-1 3:-1 4:-1 
2048 0 1:-1 2:-1 3:-1 4:-1 
2048 0 1:-0.891304 2:-1 3:-1 4:-1 
2048 0 1:-0.891304 2:-1 3:-1 4:-1 
2048 0 1:-1 2:-1 3:-1 4:-1 
2048 0 1:-1 2:-1 3:-1 4:-1 
2048 0 1:-0.949275 2:-1 3:-1 4:-1 
2048 0 1:-1 2:-1 3:-1 4:-1 
2048 0 1:-1 2:-1 3:-1 4:-1 
2048 0 1:-0.956522 2:-1 3:-1 4:-1 
2048 0 1:-0.981884 2:-1 3:-1 4:-1 
2042.267839465489 0 1:-1 2:-1 3:-1 4:-1 
2047.90288447235 0 1:-1 2:-1 3:-1 4:-1 
2048 0 1:-0.82971 2:-1 3:-0.936508 4:-1 
2048 0 1:-1 2:-1 3:-1 4:-1 
2048 0 1:-1 2:-1 3:-1 4:-1 
2048 0 1:-1 2:-1 3:-1 4:-1 
2048 0 1:-1 2:-1 3:-1 4:-1 
2048 0 1:-0.884058 2:-1 3:-1 4:-1 
2048 0 1:-0.945652 2:-1 3:-1 4:-1 
2048 0 1:-0.884058 2:-1 3:-1 4:-1 
2048 0 1:-1 2:-1 3:-1 4:-1 
2048 0 1:-1 2:-1 3:-1 4:-1 
56.5850658914833 0 1:-0.865942 2:-1 3:-1 4:-1 
2048 0 1:-0.942029 2:-1 3:-1 4:-1 
609.2049853864995 0 1:-0.771739 2:-1 3:-1 4:-1 
1.130132640920807 0 1:-0.771739 2:-1 3:-1 4:-1 
1121.995851611741 0 1:-1 2:-1 3:-1 4:-1 
2048 0 1:-0.934783 2:-1 3:-1 4:-1 
2048 0 1:-0.945652 2:-1 3:-1 4:-1 
2048 0 1:-1 2:-1 3:-1 4:-1 
2048 0 1:-1 2:-1 3:-1 4:-1 
2048 0 1:-0.923913 2:-1 3:-1 4:-1 
2047.922628963992 0 1:-1 2:-1 3:-1 4:-1 
2048 0 1:-0.942029 2:-1 3:-1 4:-1 
2048 0 1:-1 2:-1 3:-1 4:-1 
2048 0 1:-1 2:-1 3:-1 4:-1 
2048 0 1:-0.942029 2:-1 3:-1 4:-1 
2048 0 1:-0.942029 2:-1 3:-1 4:-1 
2048 0 1:-1 2:-1 3:-1 4:-1 
2048 0 1:-1 2:-1 3:-1 4:-1 
2048 0 1:-1 2:-1 3:-1 4:-1 
2048 0 1:-1 2:-1 3:-1 4:-1 
1688.219128963542 0 1:-1 2:-1 3:-1 4:-1 
2048 0 1:-0.992754 2:-1 3:-1 4:-1 
2048 0 1:-1 2:-1 3:-1 4:-1 
2048 0 1:-1 2:-1 3:-1 4:-1 
2048 0 1:-0.815217 2:-1 3:-1 4:-1 
2048 0 1:-1 2:-1 3:-1 4:-1 
2048 0 1:-1 2:-1 3:-1 4:-1 
2048 0 1:-1 2:-1 3:-1 4:-1 
2048 0 1:-1 2:-1 3:-1 4:-1 
2048 0 1:-1 2:-1 3:-1 4:-1 
2048 0.8526993869052338 1:-1 2:-1 3:-1 4:-1 
-2048 0 1:-1 2:-1 3:-1 4:-1 
-2048 0 1:-1 2:-1 3:-1 4:-1 
-2048 0 1:-0.992754 2:-1 3:-1 4:-1 
-0.7123987874911547 0.2717892849116137 1:-0.0543478 2:-0.17284 3:-0.619048 4:-0.0654206 
-0.142123134721443 0.006180088328777269 1:-0.228261 2:-0.222222 3:-0.428571 4:-0.0501274 
-0 0.1811501817716868 1:-0.76087 2:-0.62963 3:-0.68254 4:-0.418862 
-2048 0 1:-0.894928 2:-1 3:-1 4:-1 
-0.4808023863688056 1.643080772889742 1:-0.166667 2:-0.438272 3:-0.142857 4:-0.388275 
-2048 0 1:-1 2:-1 3:-1 4:-1 
-2048 0 1:-1 2:-1 3:-1 4:-1 
-2048 0 1:-0.905797 2:-1 3:-1 4:-1 
-2048 0 1:-1 2:-1 3:-1 4:-1 
-2048 0 1:-0.916667 2:-1 3:-1 4:-1 
-2048 0 1:-0.945652 2:-1 3:-1 4:-1 
-2048 0 1:-1 2:-1 3:-1 4:-1 
-2048 0 1:-1 2:-1 3:-1 4:-1 
-2048 0 1:-1 2:-1 3:-1 4:-1 
-2048 0 1:-1 2:-1 3:-1 4:-1 
-0 0.2787568672744888 1:-0.724638 2:-0.611111 3:-0.968254 4:-0.00934579 
-2048 0 1:-0.797101 2:-1 3:-1 4:-0.988105 
-2048 0 1:-0.949275 2:-1 3:-1 4:-1 
-2048 0 1:-0.90942 2:-1 3:-1 4:-1 
-2048 0 1:-1 2:-1 3:-1 4:-1 
-1938.961100485173 0 1:-1 2:-1 3:-1 4:-0.986406 
-2048 0 1:-1 2:-1 3:-1 4:-1 
-2048 0 1:-0.981884 2:-1 3:-1 4:-1 
-2048 0 1:-1 2:-1 3:-1 4:-1 
-0.3612352145602986 0.04175636733527863 1:-0.565217 2:-0.506173 3:-0.460317 4:-0.218352 
-2048 0 1:-1 2:-1 3:-1 4:-1 
-2048 0 1:-1 2:-1 3:-1 4:-1 
-2048 0 1:-1 2:-1 3:-1 4:-1 
-2048 0 1:-0.887681 2:-1 3:-1 4:-1 
-2048 0 1:-1 2:-1 3:-1 4:-1 
-305.7630482187259 0 1:-0.934783 2:-1 3:-1 4:-0.68904 
-2048 0 1:-1 2:-1 3:-1 4:-1 
-2048 0 1:-0.873188 2:-1 3:-1 4:-1 
-737.226612374518 0 1:-0.807971 2:-1 3:-0.873016 4:-1 
-2048 0 1:-0.985507 2:-1 3:-1 4:-1 
-2048 0 1:-1 2:-1 3:-1 4:-1 
-2048 0 1:-0.807971 2:-1 3:-1 4:-1 
-2048 0 1:-0.92029 2:-1 3:-1 4:-1 
-2048 0 1:-0.844203 2:-1 3:-1 4:-1 
-2048 0 1:-1 2:-1 3:-1 4:-1 
-2048 0 1:-1 2:-1 3:-1 4:-1 
-0 0.762509925801913 1:-0.862319 2:-0.864198 3:-1 4:-0.0484282 
-2048 0 1:-1 2:-1 3:-1 4:-1 
-2048 0 1:-1 2:-1 3:-1 4:-1 
-2048 0 1:-1 2:-1 3:-1 4:-1 
-431.2239559065268 0 1:-0.927536 2:-1 3:-1 4:-0.789295 
-2048 0 1:-0.967391 2:-1 3:-1 4:-1 
-2048 0 1:-1 2:-1 3:-1 4:-1 
-2048 0 1:-1 2:-1 3:-1 4:-1 
-2048 0 1:-0.981884 2:-1 3:-1 4:-1 
-2048 0 1:-0.985507 2:-1 3:-1 4:-1 
-0 0.767485895235523 1:-1 2:-1 3:-1 4:-0.549703 
-925.0476565168416 0 1:-0.981884 2:-1 3:-1 4:-0.724724 
-2048 0 1:-1 2:-1 3:-1 4:-1 
-2048 0 1:-0.963768 2:-1 3:-1 4:-1 
-0.151744351378372 0 1:-0.166667 2:-0.537037 3:-0.52381 4:-0.408666 
-0 0.8112529545721124 1:-0.32971 2:-0.888889 3:-0.873016 4:-0.615973 
-2048 0 1:-0.978261 2:-1 3:-1 4:-1 
-2048 0 1:-1 2:-1 3:-1 4:-1 
-2048 0 1:-1 2:-1 3:-1 4:-1 
-2048 0 1:-1 2:-1 3:-1 4:-1 
-8.584817280905291 0 1:-0.884058 2:-0.919753 3:-0.936508 4:-0.719626 
-2048 0 1:-1 2:-1 3:-1 4:-1 
-0 0.4972301075311105 1:-0.496377 2:-0.617284 3:-1 4:-0.231946 
-2048 0 1:-0.978261 2:-1 3:-1 4:-1 
-2048 0 1:-0.960145 2:-1 3:-1 4:-1 
-2048 0 1:-0.90942 2:-1 3:-1 4:-1 
-1.300763334412497 0 1:-0.902174 2:-0.981481 3:-0.904762 4:-0.706032 
-2048 0 1:-1 2:-1 3:-1 4:-1 
-2048 0 1:-1 2:-1 3:-1 4:-1 
-2048 0 1:-0.992754 2:-1 3:-1 4:-1 
-2048 0 1:-1 2:-1 3:-1 4:-1 
-2048 0 1:-1 2:-1 3:-1 4:-1 
-2048 0 1:-1 2:-1 3:-1 4:-1 
-2048 0 1:-1 2:-1 3:-1 4:-1 
-2048 0 1:-0.945652 2:-1 3:-1 4:-1 
-0 0.861498144102754 1:-0.891304 2:-0.919753 3:-0.428571 4:-0.367884 
-2048 0 1:-1 2:-1 3:-1 4:-1 
-2048 0 1:-1 2:-1 3:-1 4:-1 
-2048 0 1:-1 2:-1 3:-1 4:-1 
-572.2830228543924 0 1:-0.84058 2:-1 3:-0.873016 4:-1 
-2048 0 1:-0.996377 2:-1 3:-1 4:-1 
-0 0.0400187868909269 1:-0.92029 2:-0.962963 3:-1 4:-0.367884 
-2048 0 1:-1 2:-1 3:-1 4:-1 
-2048 0 1:-1 2:-1 3:-1 4:-1 
-2048 0 1:-0.815217 2:-1 3:-0.968254 4:-1 
-2048 0 1:-0.992754 2:-1 3:-1 4:-1 
-2048 0 1:-1 2:-1 3:-1 4:-1 
-2048 0 1:-1 2:-1 3:-1 4:-1 
-2048 0 1:-1 2:-1 3:-1 4:-1 
-2048 0 1:-0.905797 2:-1 3:-1 4:-1 
-2048 0 1:-0.981884 2:-1 3:-1 4:-1 
-0 0.1140333352745374 1:-0.601449 2:-0.475309 3:-0.84127 4:-0.306712 
-2048 0 1:-0.967391 2:-1 3:-1 4:-1 
-2048 0 1:-0.82971 2:-1 3:-1 4:-1 
-2048 0 1:-0.891304 2:-1 3:-1 4:-1 
-2048 0 1:-1 2:-1 3:-1 4:-1 
-2048 0 1:-1 2:-1 3:-1 4:-1 
-2048 0 1:-1 2:-1 3:-1 4:-1 
-2048 0 1:-1 2:-1 3:-1 4:-1 
-2048 0 1:-0.974638 2:-1 3:-1 4:-1 
-2048 0 1:-1 2:-1 3:-1 4:-1 
-2048 0 1:-0.869565 2:-1 3:-0.968254 4:-1 
-2048 0 1:-1 2:-1 3:-1 4:-1 
-2048 0 1:-0.978261 2:-1 3:-1 4:-1 
-0.8782626917105416 0.3989876014383782 1:-0.565217 2:-0.345679 3:-0.746032 4:-0.0382328 
-2048 0 1:-0.952899 2:-1 3:-1 4:-1 
-2048 0 1:-1 2:-1 3:-1 4:-1 
-2048 0 1:-0.927536 2:-1 3:-1 4:-1 
-2048 0 1:-1 2:-1 3:-1 4:-1 
-2048 0 1:-1 2:-1 3:-1 4:-1 
-2048 0 1:-1 2:-1 3:-1 4:-1 
-2047.990710855332 0 1:-1 2:-1 3:-1 4:-0.986406 
-0.1772018299651665 0.2136368553003337 1:-0.358696 2:-0.808642 3:-0.619048 4:-0.388275 
-2048 0 1:-0.949275 2:-1 3:-1 4:-1 
-2048 0 1:-0.985507 2:-1 3:-1 4:-1 
-2048 0 1:-1 2:-1 3:-1 4:-1 
-0.7802545052883806 1.954709561131081 1:0.119565 2:-0.314815 3:-0.428571 4:-0.226848 
-2048 0 1:-0.844203 2:-1 3:-1 4:-1 
-0.8860511151641561 0.7201705299401782 1:-0.17029 2:-0.722222 3:-0.333333 4:-0.631266 
-2048 0 1:-0.956522 2:-1 3:-1 4:-1 
-2048 0 1:-0.706522 2:-1 3:-0.904762 4:-1 
-2048 0 1:-0.985507 2:-1 3:-1 4:-1 
-2048 0 1:-0.876812 2:-1 3:-1 4:-1 
-0 0.2240793125415143 1:-0.702899 2:-0.635802 3:-0.587302 4:-0.131691 
-2048 0 1:-1 2:-1 3:-1 4:-1 
-2048 0 1:-1 2:-1 3:-1 4:-1 
-0.4794136327149749 0.1138966845914751 1:-0.344203 2:-0.617284 3:-0.111111 4:-0.497026 
-2048 0 1:-0.952899 2:-1 3:-1 4:-1 
-2048 0 1:-1 2:-1 3:-1 4:-1 
-2048 0 1:-1 2:-1 3:-1 4:-1 
-2048 0 1:-1 2:-1 3:-1 4:-1 
-2048 0 1:-1 2:-1 3:-1 4:-1 
-2048 0 1:-0.963768 2:-1 3:-1 4:-1 
-2048 0 1:-1 2:-1 3:-1 4:-1 
-2048 0 1:-1 2:-1 3:-1 4:-1 
-2048 0 1:-1 2:-1 3:-1 4:-1 
-0 0.02098380901573685 1:-0.789855 2:-0.851852 3:-0.650794 4:-0.677145 
-2048 0 1:-1 2:-1 3:-1 4:-1 
-2048 0 1:-0.942029 2:-1 3:-1 4:-1 
-0.1900447909105346 0.06799959632476245 1:-0.463768 2:-0.376543 3:-0.428571 4:-0.31181 
-2048 0 1:-1 2:-1 3:-1 4:-1 
-0 0.03317744791381505 1:-0.927536 2:-0.925926 3:-1 4:-0.281223 
-0 0.4566541325899569 1:-0.615942 2:-0.753086 3:-0.365079 4:-0.59898 
-2048 0 1:-0.934783 2:-1 3:-1 4:-1 
-2048 0 1:-1 2:-1 3:-1 4:-1 
-2048 0 1:-1 2:-1 3:-1 4:-1 
-2048 0 1:-0.898551 2:-1 3:-1 4:-1 
-2048 0 1:-1 2:-1 3:-1 4:-1 
-2048 0 1:-1 2:-1 3:-1 4:-1 
-2048 0 1:-1 2:-1 3:-1 4:-1 
-2048 0 1:-0.913043 2:-1 3:-1 4:-1 
-2048 0 1:-1 2:-1 3:-1 4:-1 
-2048 0 1:-0.789855 2:-1 3:-0.968254 4:-1 
-2048 0.2807757993111294 1:-0.717391 2:-1 3:-0.968254 4:-1 
-2048 0 1:-0.836957 2:-1 3:-1 4:-1 
-2048 0 1:-1 2:-1 3:-1 4:-1 
-2048 0 1:-0.952899 2:-1 3:-1 4:-1 
-2048 0 1:-0.927536 2:-1 3:-1 4:-1 
-2048 0 1:-1 2:-1 3:-1 4:-1 
-2048 0 1:-1 2:-1 3:-1 4:-1 
-2048 0 1:-1 2:-1 3:-1 4:-1 
-2048 0 1:-1 2:-1 3:-1 4:-1 
-2048 0 1:-1 2:-1 3:-1 4:-1 
-2048 0 1:-0.981884 2:-1 3:-1 4:-1 
-2048 0 1:-1 2:-1 3:-1 4:-1 
-2048 0 1:-0.884058 2:-1 3:-1 4:-1 
-2048 0 1:-0.985507 2:-1 3:-1 4:-1 
-2048 0 1:-0.887681 2:-1 3:-1 4:-1 
-0 0.1686308403312324 1:-0.315217 2:-0.290123 3:-0.714286 4:-0.0722175 
-2048 0 1:-0.884058 2:-1 3:-1 4:-1 
-2048 0 1:-0.884058 2:-1 3:-1 4:-1 
-2048 0 1:-1 2:-1 3:-1 4:-1 
-2048 0 1:-0.869565 2:-1 3:-1 4:-1 
-2048 0 1:-0.971014 2:-1 3:-1 4:-1 
-2048 0 1:-0.869565 2:-1 3:-1 4:-1 
-2048 0 1:-1 2:-1 3:-1 4:-1 
-2048 0 1:-0.927536 2:-1 3:-1 4:-1 
-2048 0 1:-0.938406 2:-1 3:-1 4:-1 
-2048 0 1:-0.967391 2:-1 3:-1 4:-1 
-2048 0 1:-1 2:-1 3:-1 4:-1 
-2048 0 1:-0.960145 2:-1 3:-1 4:-1 
-2048 0 1:-1 2:-1 3:-1 4:-1 
-0 0.7559093031411503 1:-0.619565 2:-1 3:-0.68254 4:-0.967715 
-2048 0 1:-1 2:-1 3:-1 4:-1 
-2048 0 1:-1 2:-1 3:-1 4:-1 
-2048 0 1:-0.931159 2:-1 3:-1 4:-1 
-2048 0 1:-0.913043 2:-1 3:-1 4:-1 
-2048 0 1:-0.971014 2:-1 3:-1 4:-1 
-2048 0 1:-1 2:-1 3:-1 4:-1 
-2048 0 1:-0.978261 2:-1 3:-1 4:-1 
-2048 0 1:-1 2:-1 3:-1 4:-1 
-2048 0 1:-0.931159 2:-1 3:-1 4:-1 
-2048 0 1:-1 2:-1 3:-1 4:-1 
-2048 0 1:-1 2:-1 3:-1 4:-1 
-2048 0 1:-0.996377 2:-1 3:-1 4:-1 
-0.1406677744214291 0 1:-0.405797 2:-0.716049 3:-0.396825 4:-0.588785 
-2048 0 1:-0.992754 2:-1 3:-1 4:-1 
-2048 0 1:-0.967391 2:-1 3:-1 4:-1 
-0.2959349893134453 0.540975127806492 1:-0.398551 2:-0.351852 3:-0.492063 4:0.017842 
-0 0.05394914385670979 1:-0.713768 2:-0.901235 3:-1 4:-0.369584 
-2048 0 1:-1 2:-1 3:-1 4:-1 
-2048 0 1:-1 2:-1 3:-1 4:-1 
-2048 0 1:-0.931159 2:-1 3:-1 4:-1 
-2048 0 1:-1 2:-1 3:-1 4:-1 
-2048 0 1:-1 2:-1 3:-1 4:-1 
-2048 0 1:-1 2:-1 3:-1 4:-1 
-2048 0 1:-1 2:-1 3:-1 4:-1 
-2048 0 1:-0.768116 2:-1 3:-0.968254 4:-1 
-2048 0.8048196524095352 1:-1 2:-1 3:-1 4:-1 
-0.006031698119043845 -0.02286472129737368 1:0.692029 2:0.37037 3:-0.015873 4:0.597281 
-0.06981841258431951 -0.1979071771665818 1:0.735507 2:0.746914 3:0.015873 4:0.734919 
-0.08013655935418448 -0.2327116784310311 1:0.561594 2:-0.444444 3:0.111111 4:0.632965 
-0.1434527931712585 -0.2569143410959965 1:0.188406 2:-0.574074 3:0.460317 4:-0.357689 
-0.0365678640483514 -0.1074414290621743 1:0.445652 2:0.358025 3:0.52381 4:0.480034 
-0.1459435973550717 -0.4168004492761807 1:0.550725 2:-0.432099 3:0.269841 4:0.313509 
-0.1633496613815977 -0.4651571784043297 1:0.771739 2:0.574074 3:1 4:0.660153 
-0.05475768319896942 -0.1210503607968136 1:0.42029 2:-0.135802 3:-0.047619 4:0.145285 
-0.1074190043287739 -0.3103970033543693 1:0.673913 2:-0.524691 3:-0.206349 4:0.738318 
-0.05924594511517112 -0.1701463016092907 1:0.778986 2:0.666667 3:0.650794 4:0.694138 
-0.174376300648604 -2.209503974733971 1:0.126812 2:-0.506173 3:-0.206349 4:-0.252336 
-0.2279119875155406 -0.6473709562328841 1:0.467391 2:-0.814815 3:-0.68254 4:0.44435 
-0.0909881789441163 -0.2721465315857578 1:0.619565 2:0.0740741 3:0.269841 4:0.24554 
-0.03190233643635217 -0.1252459189003205 1:0.365942 2:-0.0123457 3:0.68254 4:0.237043 
-0.09889858536617346 -0.2703996264622938 1:0.492754 2:-0.67284 3:-0.111111 4:0.503823 
-0.02745397605440509 -0.08308007971578209 1:0.565217 2:0.703704 3:0.238095 4:0.736619 
-0.1723223674410519 -0.5371466865566686 1:0.311594 2:-0.574074 3:-0.396825 4:0.150382 
-0.1177036315064871 -0.3563053264231826 1:0.264493 2:0.0925926 3:-0.015873 4:0.31181 
-0.1965136931463035 -0.5599469344710607 1:1 2:1 3:0.333333 4:0.97791 
-0.08302224952946188 -0.2383284129039745 1:0.583333 2:-0.191358 3:-0.0793651 4:0.57689 
-0.04077236729464687 -0.1101035978517681 1:0.59058 2:0.660494 3:0.428571 4:0.653356 
-0.01688839828887671 -0.04851649285309376 1:0.641304 2:0.574074 3:0.68254 4:0.721325 
-0.1217189974626681 -0.3493485575436828 1:0.630435 2:0.592593 3:-0.238095 4:0.610875 
-0.01126977521103935 -0 1:0.213768 2:0.0617284 3:0.111111 4:0.254036 
-0.1123837014152637 -0.3197396658463901 1:0.583333 2:-0.395062 3:-0.396825 4:0.604078 
-0.08083185244251007 -0.2284601603871418 1:0.626812 2:0.611111 3:0.015873 4:0.840272 
-0.005406876160056001 -0.08675379848208996 1:0.289855 2:-0.425926 3:0.619048 4:-0.148683 
-0.03943555827984457 -0.1166407760071111 1:0.775362 2:0.574074 3:0.396825 4:0.573492 
-0.0672147345298388 -0.1381600846325377 1:0.00362319 2:-0.401235 3:0.0793651 4:-0.102804 
-0.01602419841444358 -0 1:0.26087 2:-0.382716 3:0.269841 4:-0.140187 
-0.04321720210263416 -0.1469373776420856 1:0.108696 2:-0.450617 3:0.619048 4:-0.179269 
-0.08137737952081681 -0.3526171035453836 1:0.15942 2:-0.185185 3:-0.015873 4:0.0348343 
-0.04731174290745948 -0.1326542912966449 1:0.876812 2:0.814815 3:0.492063 4:0.784197 
-0.1829576004365112 -0.4885900144110187 1:0.192029 2:-0.333333 3:0.809524 4:-0.00594732 
-0.06685514812121947 -0.1965365066525782 1:0.57971 2:0.185185 3:0.777778 4:0.508921 
-0.05843848927804833 -0.169162098617194 1:0.771739 2:0.944444 3:0.365079 4:0.926933 
-0.054935260735482 -0.1467142792692677 1:0.695652 2:0.240741 3:0.269841 4:0.476636 
-0.03518241345821235 -0.09693681670513977 1:0.423913 2:-0.283951 3:0.460317 4:0.0297366 
-0.053225009628682 -0.1525733397357369 1:0.699275 2:0.37037 3:0.492063 4:0.405268 
-0.04271305377781692 -0.1068146242289176 1:0.442029 2:-0.117284 3:0.650794 4:0.140187 
-0.1151385887817186 -0.3241502580683513 1:0.5 2:0.388889 3:-0.206349 4:0.520816 
-0.08290627915234666 -0.2138497725121825 1:0.449275 2:0.0802469 3:0.714286 4:0.345794 
-0.1417910366895668 -0.696362176777326 1:-0.0144928 2:-0.592593 3:0.206349 4:-0.393373 
-0.07697797640218781 -0.2182813359124014 1:0.40942 2:0.382716 3:0.206349 4:0.570093 
-0.100228607285637 -0.2765582650610185 1:0.15942 2:-0.117284 3:0.396825 4:0.150382 
-0.1206254176752165 -0.3437643485741954 1:0.557971 2:0.401235 3:1 4:0.544605 
-0.007422236058498486 -0.02500727847065183 1:0.40942 2:0.351852 3:0.206349 4:0.403568 
